{
  "classes": [
    "burpees",
    "jogging",
    "jumping_jacks",
    "pushups",
    "situps",
    "squats",
    "standing",
    "walking"
  ],
  "weights": [
    [
      -1.142840130193942,
      0.667406118423807,
      -1.3221639210815723,
      -1.199262154183727,
      0.21795046881061025,
      0.4371676548529353,
      -1.0154858022519622,
      0.9083696358301074,
      0.00581607494073297,
      0.1922204268696091,
      -0.02913631692965677,
      0.36331670264290106,
      0.17215610854667274,
      -0.18862144450082996,
      -0.654116801030109,
      0.010847232643169379,
      -0.14908345841978543,
      -0.09323854826209535,
      0.7077077225803614,
      -0.6760315504430867
    ],
    [
      -1.9095929753075027,
      0.40792878624900863,
      -0.4691514091568662,
      -0.08382143586905841,
      1.4243527842829073,
      -0.7792852965488056,
      0.16454087313134508,
      -0.019546263129963094,
      0.07071504657965348,
      0.5779306278509159,
      -0.5877197310815424,
      0.30191072347191766,
      1.5131315158899636,
      -0.6120772047390851,
      0.5762654259597798,
      0.3504492702732686,
      -0.7352231089809007,
      1.8483790497022548,
      -1.2644062920304284,
      1.11931731283355
    ],
    [
      -0.602943768818348,
      -0.0824899532139013,
      -1.0057292052993447,
      -0.26048564151569,
      -0.2122008605192271,
      1.8095122302419755,
      -0.17745724901658413,
      0.23393555908806996,
      -0.46928744539074246,
      -0.24180509986568774,
      0.04421917705956137,
      0.20033649665844086,
      -0.2383329072696231,
      1.9559108932919242,
      -0.7690944240407103,
      0.21749764901233656,
      -0.6663576951056014,
      0.19204554314707298,
      -0.27225107816414346,
      0.8799941399740437
    ],
    [
      -0.39627323005555565,
      -0.39195866384128375,
      0.11660362475120718,
      -1.2430052915838494,
      -0.7097688946658086,
      -0.3161731865595438,
      0.2813531084719009,
      -0.1262679532368121,
      0.6517655965857223,
      -0.07976946403005279,
      0.5894127078921135,
      0.33496720734861823,
      -0.4739059124054099,
      -0.01678064986482578,
      -0.7696721207397477,
      0.1919845474419965,
      0.6313698106526976,
      -0.9225127186353997,
      0.6416316406872525,
      -0.057087611535605653
    ],
    [
      0.8963507295366616,
      -0.21356689912150717,
      0.6767398352068826,
      0.5929033090685708,
      -1.2880093881065275,
      -0.1461273867195619,
      -0.9097545930558351,
      -0.441561890705446,
      -0.12390727487942128,
      -0.24636662057251793,
      0.06129745532108537,
      -0.29998719040364974,
      -0.07382212802116574,
      -0.10475598586635225,
      0.1992382375124866,
      -0.09334549385996173,
      1.1799893511413169,
      -0.7798311810700299,
      -0.04183295427440137,
      -0.056129327967775394
    ],
    [
      0.7504183229976257,
      1.5821029156817492,
      0.33423897663591934,
      0.25924202340149666,
      -0.11728143999298844,
      -0.088864882014465,
      0.17242770380936365,
      -0.41362093835433406,
      -1.385955221781334,
      -0.032365482451408724,
      -0.07846127526838434,
      -0.6340174895666137,
      -0.9631497505170145,
      -0.709955856537715,
      0.8766310740187181,
      -0.834998551671526,
      -0.522116224828769,
      -0.8684558078125522,
      0.3965732058987312,
      -0.5901745886908201
    ],
    [
      0.8783246026369222,
      -1.2972141481018087,
      1.2817949172629108,
      -0.2029382052040709,
      0.03790748212251592,
      -0.2306989488216405,
      0.6132285278932836,
      -0.13267525663328242,
      0.8201086297939743,
      -0.9964115891004642,
      1.005795135233947,
      -0.37627246296309913,
      -0.08523068349995765,
      -0.2639192509869179,
      0.9445167352129751,
      -0.2133700050268613,
      -0.03084279650204049,
      0.04839634140636542,
      -0.01009213183969204,
      -0.2882183258147179
    ],
    [
      1.5265564492041381,
      -0.672208156076063,
      0.3876671816808652,
      2.1373673958863244,
      0.6470498480685138,
      -0.6855301844308956,
      0.8711474310184844,
      -0.008632892858342147,
      0.43074459415141236,
      0.8265672012996054,
      -1.005407152227124,
      0.10974601281148236,
      0.14915375727653218,
      -0.05980050079619824,
      -0.4037681268933913,
      0.3709353511875784,
      0.2922641220430845,
      0.5752173215243819,
      -0.1573301128576762,
      -0.33167004835558606
    ]
  ],
  "bias": [
    1.559398667505482,
    1.012868112850645,
    -3.4145055294974056,
    0.8236707111776851,
    1.0939147674838623,
    1.2161342467081844,
    -3.6428436346774693,
    1.3513626584489717
  ],
  "scaler_mean": [
    0.09177128189962326,
    0.25970267591130464,
    -0.48244175464239514,
    0.6792183670343137,
    0.6670101102054683,
    0.47102746887505853,
    -0.023698528347971135,
    1.966418264218665,
    0.026194407477617764,
    0.27800460993897375,
    -0.7125583224826388,
    0.5461152186840448,
    1.1229024553249407,
    0.42823582394015924,
    0.5607151464688896,
    2.4128391405795755,
    0.45595229071989024,
    0.7586185917961651,
    0.3371262006683458,
    0.3915694448664146
  ],
  "scaler_scale": [
    0.47871358668610386,
    0.1639346229495156,
    0.6651332927794813,
    0.6362719947775011,
    0.4499928355840398,
    0.5023531003423525,
    0.5166353186648663,
    1.8078017210150892,
    0.32758410943236854,
    0.20866944246320554,
    0.8368953105999535,
    0.43130049873612886,
    0.1648043623720846,
    0.4592395147978156,
    0.2885341974840099,
    1.6239028654246064,
    0.26376224122106334,
    0.3675652174098467,
    0.21440854741998014,
    0.4138053523459752
  ]
}